digraph Tree {
node [shape=box] ;
0 [label="X[19] <= -0.639\nentropy = 1.554\nsamples = 21\nvalue = [8, 8, 5]"] ;
1 [label="X[5] <= 0.344\nentropy = 0.722\nsamples = 10\nvalue = [8, 2, 0]"] ;
0 -> 1 [labeldistance=2.5, labelangle=45, headlabel="True"] ;
2 [label="entropy = 0.0\nsamples = 2\nvalue = [0, 2, 0]"] ;
1 -> 2 ;
3 [label="entropy = 0.0\nsamples = 8\nvalue = [8, 0, 0]"] ;
1 -> 3 ;
4 [label="X[36] <= -0.344\nentropy = 0.994\nsamples = 11\nvalue = [0, 6, 5]"] ;
0 -> 4 [labeldistance=2.5, labelangle=-45, headlabel="False"] ;
5 [label="X[6] <= 0.556\nentropy = 0.65\nsamples = 6\nvalue = [0, 5, 1]"] ;
4 -> 5 ;
6 [label="entropy = 0.0\nsamples = 5\nvalue = [0, 5, 0]"] ;
5 -> 6 ;
7 [label="entropy = 0.0\nsamples = 1\nvalue = [0, 0, 1]"] ;
5 -> 7 ;
8 [label="X[40] <= -0.21\nentropy = 0.722\nsamples = 5\nvalue = [0, 1, 4]"] ;
4 -> 8 ;
9 [label="entropy = 0.0\nsamples = 1\nvalue = [0, 1, 0]"] ;
8 -> 9 ;
10 [label="entropy = 0.0\nsamples = 4\nvalue = [0, 0, 4]"] ;
8 -> 10 ;
}