digraph Tree {
node [shape=box] ;
0 [label="X[1] <= -0.212\nentropy = 0.915\nsamples = 546\nvalue = [366, 180]"] ;
1 [label="X[5] <= -0.012\nentropy = 0.205\nsamples = 343\nvalue = [332, 11]"] ;
0 -> 1 [labeldistance=2.5, labelangle=45, headlabel="True"] ;
2 [label="X[0] <= 0.73\nentropy = 0.054\nsamples = 324\nvalue = [322, 2]"] ;
1 -> 2 ;
3 [label="entropy = 0.0\nsamples = 320\nvalue = [320, 0]"] ;
2 -> 3 ;
4 [label="entropy = 1.0\nsamples = 4\nvalue = [2, 2]"] ;
2 -> 4 ;
5 [label="X[0] <= -0.334\nentropy = 0.998\nsamples = 19\nvalue = [10, 9]"] ;
1 -> 5 ;
6 [label="entropy = 0.0\nsamples = 8\nvalue = [8, 0]"] ;
5 -> 6 ;
7 [label="X[6] <= -0.386\nentropy = 0.684\nsamples = 11\nvalue = [2, 9]"] ;
5 -> 7 ;
8 [label="entropy = 1.0\nsamples = 4\nvalue = [2, 2]"] ;
7 -> 8 ;
9 [label="entropy = 0.0\nsamples = 7\nvalue = [0, 7]"] ;
7 -> 9 ;
10 [label="X[1] <= 0.44\nentropy = 0.652\nsamples = 203\nvalue = [34, 169]"] ;
0 -> 10 [labeldistance=2.5, labelangle=-45, headlabel="False"] ;
11 [label="X[5] <= -0.012\nentropy = 0.988\nsamples = 71\nvalue = [31, 40]"] ;
10 -> 11 ;
12 [label="X[7] <= -0.121\nentropy = 0.65\nsamples = 30\nvalue = [25, 5]"] ;
11 -> 12 ;
13 [label="entropy = 0.0\nsamples = 18\nvalue = [18, 0]"] ;
12 -> 13 ;
14 [label="X[0] <= 0.021\nentropy = 0.98\nsamples = 12\nvalue = [7, 5]"] ;
12 -> 14 ;
15 [label="entropy = 0.65\nsamples = 6\nvalue = [5, 1]"] ;
14 -> 15 ;
16 [label="entropy = 0.918\nsamples = 6\nvalue = [2, 4]"] ;
14 -> 16 ;
17 [label="X[0] <= 0.73\nentropy = 0.601\nsamples = 41\nvalue = [6, 35]"] ;
11 -> 17 ;
18 [label="X[2] <= 0.43\nentropy = 0.94\nsamples = 14\nvalue = [5, 9]"] ;
17 -> 18 ;
19 [label="X[2] <= 0.095\nentropy = 1.0\nsamples = 10\nvalue = [5, 5]"] ;
18 -> 19 ;
20 [label="entropy = 0.918\nsamples = 6\nvalue = [2, 4]"] ;
19 -> 20 ;
21 [label="entropy = 0.811\nsamples = 4\nvalue = [3, 1]"] ;
19 -> 21 ;
22 [label="entropy = 0.0\nsamples = 4\nvalue = [0, 4]"] ;
18 -> 22 ;
23 [label="X[5] <= 1.224\nentropy = 0.229\nsamples = 27\nvalue = [1, 26]"] ;
17 -> 23 ;
24 [label="entropy = 0.592\nsamples = 7\nvalue = [1, 6]"] ;
23 -> 24 ;
25 [label="entropy = 0.0\nsamples = 20\nvalue = [0, 20]"] ;
23 -> 25 ;
26 [label="X[6] <= 0.431\nentropy = 0.156\nsamples = 132\nvalue = [3, 129]"] ;
10 -> 26 ;
27 [label="X[0] <= 0.73\nentropy = 0.422\nsamples = 35\nvalue = [3, 32]"] ;
26 -> 27 ;
28 [label="X[3] <= 0.933\nentropy = 0.75\nsamples = 14\nvalue = [3, 11]"] ;
27 -> 28 ;
29 [label="entropy = 1.0\nsamples = 6\nvalue = [3, 3]"] ;
28 -> 29 ;
30 [label="entropy = 0.0\nsamples = 8\nvalue = [0, 8]"] ;
28 -> 30 ;
31 [label="entropy = 0.0\nsamples = 21\nvalue = [0, 21]"] ;
27 -> 31 ;
32 [label="entropy = 0.0\nsamples = 97\nvalue = [0, 97]"] ;
26 -> 32 ;
}