digraph Tree {
node [shape=box] ;
0 [label="X[1] <= -0.212\nentropy = 0.929\nsamples = 546\nvalue = [358, 188]"] ;
1 [label="X[7] <= 0.207\nentropy = 0.178\nsamples = 337\nvalue = [328, 9]"] ;
0 -> 1 [labeldistance=2.5, labelangle=45, headlabel="True"] ;
2 [label="X[0] <= 0.73\nentropy = 0.054\nsamples = 328\nvalue = [326, 2]"] ;
1 -> 2 ;
3 [label="entropy = 0.0\nsamples = 324\nvalue = [324, 0]"] ;
2 -> 3 ;
4 [label="entropy = 1.0\nsamples = 4\nvalue = [2, 2]"] ;
2 -> 4 ;
5 [label="X[2] <= -0.239\nentropy = 0.764\nsamples = 9\nvalue = [2, 7]"] ;
1 -> 5 ;
6 [label="entropy = 1.0\nsamples = 4\nvalue = [2, 2]"] ;
5 -> 6 ;
7 [label="entropy = 0.0\nsamples = 5\nvalue = [0, 5]"] ;
5 -> 7 ;
8 [label="X[1] <= 0.44\nentropy = 0.593\nsamples = 209\nvalue = [30, 179]"] ;
0 -> 8 [labeldistance=2.5, labelangle=-45, headlabel="False"] ;
9 [label="X[5] <= -0.012\nentropy = 0.977\nsamples = 68\nvalue = [28, 40]"] ;
8 -> 9 ;
10 [label="X[7] <= -0.449\nentropy = 0.837\nsamples = 30\nvalue = [22, 8]"] ;
9 -> 10 ;
11 [label="entropy = 0.0\nsamples = 14\nvalue = [14, 0]"] ;
10 -> 11 ;
12 [label="X[0] <= 0.021\nentropy = 1.0\nsamples = 16\nvalue = [8, 8]"] ;
10 -> 12 ;
13 [label="entropy = 0.592\nsamples = 7\nvalue = [6, 1]"] ;
12 -> 13 ;
14 [label="entropy = 0.764\nsamples = 9\nvalue = [2, 7]"] ;
12 -> 14 ;
15 [label="X[2] <= 0.43\nentropy = 0.629\nsamples = 38\nvalue = [6, 32]"] ;
9 -> 15 ;
16 [label="X[3] <= 0.933\nentropy = 0.863\nsamples = 21\nvalue = [6, 15]"] ;
15 -> 16 ;
17 [label="entropy = 0.985\nsamples = 14\nvalue = [6, 8]"] ;
16 -> 17 ;
18 [label="entropy = 0.0\nsamples = 7\nvalue = [0, 7]"] ;
16 -> 18 ;
19 [label="entropy = 0.0\nsamples = 17\nvalue = [0, 17]"] ;
15 -> 19 ;
20 [label="X[6] <= 0.431\nentropy = 0.107\nsamples = 141\nvalue = [2, 139]"] ;
8 -> 20 ;
21 [label="X[0] <= 0.73\nentropy = 0.316\nsamples = 35\nvalue = [2, 33]"] ;
20 -> 21 ;
22 [label="X[1] <= 1.093\nentropy = 0.722\nsamples = 10\nvalue = [2, 8]"] ;
21 -> 22 ;
23 [label="entropy = 0.0\nsamples = 5\nvalue = [0, 5]"] ;
22 -> 23 ;
24 [label="entropy = 0.971\nsamples = 5\nvalue = [2, 3]"] ;
22 -> 24 ;
25 [label="entropy = 0.0\nsamples = 25\nvalue = [0, 25]"] ;
21 -> 25 ;
26 [label="entropy = 0.0\nsamples = 106\nvalue = [0, 106]"] ;
20 -> 26 ;
}